<?xml version="1.0"?>
<opencv_storage>
<cascade>
  <stageType>BOOST</stageType>
  <featureType>HAAR</featureType>
  <height>20</height>
  <width>20</width>
  <stageParams>
    <boostType>GAB</boostType>
    <minHitRate>9.9500000476837158e-01</minHitRate>
    <maxFalseAlarm>5.0000000000000000e-01</maxFalseAlarm>
    <weightTrimRate>9.4999999999999996e-01</weightTrimRate>
    <maxDepth>1</maxDepth>
    <maxWeakCount>100</maxWeakCount></stageParams>
  <featureParams>
    <maxCatCount>0</maxCatCount>
    <featSize>1</featSize>
    <mode>BASIC</mode></featureParams>
  <stageNum>8</stageNum>
  <stages>
    <!-- stage 0 -->
    <_>
      <maxWeakCount>2</maxWeakCount>
      <stageThreshold>-2.8087094426155090e-01</stageThreshold>
      <weakClassifiers>
        <_>
          <internalNodes>
            0 -1 5 3.0890420079231262e-02</internalNodes>
          <leafValues>
            -8.9730554819107056e-01 7.1026158332824707e-01</leafValues></_>
        <_>
          <internalNodes>
            0 -1 9 -1.1038079857826233e-02</internalNodes>
          <leafValues>
            6.1643463373184204e-01 -9.3406808376312256e-01</leafValues></_></weakClassifiers></_>
    <!-- stage 1 -->
    <_>
      <maxWeakCount>3</maxWeakCount>
      <stageThreshold>-9.5668166875839233e-01</stageThreshold>
      <weakClassifiers>
        <_>
          <internalNodes>
            0 -1 25 6.1017498373985291e-02</internalNodes>
          <leafValues>
            -7.3065012693405151e-01 6.8671190738677979e-01</leafValues></_>
        <_>
          <internalNodes>
            0 -1 4 2.9199725016951561e-02</internalNodes>
          <leafValues>
            -7.1944129467010498e-01 6.9466787576675415e-01</leafValues></_>
        <_>
          <internalNodes>
            0 -1 21 -2.7726065367460251e-02</internalNodes>
          <leafValues>
            4.9340978264808655e-01 -8.6702734231948853e-01</leafValues></_></weakClassifiers></_>
    <!-- stage 2 -->
    <_>
      <maxWeakCount>5</maxWeakCount>
      <stageThreshold>-9.5675224065780640e-01</stageThreshold>
      <weakClassifiers>
        <_>
          <internalNodes>
            0 -1 20 3.2985307276248932e-02</internalNodes>
          <leafValues>
            -8.1896549463272095e-01 5.5976432561874390e-01</leafValues></_>
        <_>
          <internalNodes>
            0 -1 10 4.1252407245337963e-03</internalNodes>
          <leafValues>
            -5.4321545362472534e-01 7.7666026353836060e-01</leafValues></_>
        <_>
          <internalNodes>
            0 -1 31 2.1037565544247627e-02</internalNodes>
          <leafValues>
            -5.6431883573532104e-01 7.0605552196502686e-01</leafValues></_>
        <_>
          <internalNodes>
            0 -1 35 1.8143019406124949e-03</internalNodes>
          <leafValues>
            -5.5488473176956177e-01 6.1932563781738281e-01</leafValues></_>
        <_>
          <internalNodes>
            0 -1 24 -4.7111557796597481e-03</internalNodes>
          <leafValues>
            3.5042196512222290e-01 -9.8245108127593994e-01</leafValues></_></weakClassifiers></_>
    <!-- stage 3 -->
    <_>
      <maxWeakCount>5</maxWeakCount>
      <stageThreshold>-1.0644412040710449e+00</stageThreshold>
      <weakClassifiers>
        <_>
          <internalNodes>
            0 -1 27 4.8626605421304703e-03</internalNodes>
          <leafValues>
            -8.0672270059585571e-01 4.4790047407150269e-01</leafValues></_>
        <_>
          <internalNodes>
            0 -1 14 -6.9241523742675781e-03</internalNodes>
          <leafValues>
            7.0356810092926025e-01 -5.3287911415100098e-01</leafValues></_>
        <_>
          <internalNodes>
            0 -1 7 8.2994610071182251e-02</internalNodes>
          <leafValues>
            -4.9681937694549561e-01 6.6606122255325317e-01</leafValues></_>
        <_>
          <internalNodes>
            0 -1 23 -1.1776790488511324e-03</internalNodes>
          <leafValues>
            3.7658506631851196e-01 -8.7288326025009155e-01</leafValues></_>
        <_>
          <internalNodes>
            0 -1 36 -3.7938151508569717e-03</internalNodes>
          <leafValues>
            3.9539492130279541e-01 -7.0201987028121948e-01</leafValues></_></weakClassifiers></_>
    <!-- stage 4 -->
    <_>
      <maxWeakCount>4</maxWeakCount>
      <stageThreshold>-5.5801218748092651e-01</stageThreshold>
      <weakClassifiers>
        <_>
          <internalNodes>
            0 -1 29 -2.0444372203201056e-03</internalNodes>
          <leafValues>
            6.1631858348846436e-01 -6.5378671884536743e-01</leafValues></_>
        <_>
          <internalNodes>
            0 -1 13 5.5963369086384773e-03</internalNodes>
          <leafValues>
            -7.9271882772445679e-01 4.1816022992134094e-01</leafValues></_>
        <_>
          <internalNodes>
            0 -1 2 1.3277360238134861e-02</internalNodes>
          <leafValues>
            -5.1622116565704346e-01 5.8757954835891724e-01</leafValues></_>
        <_>
          <internalNodes>
            0 -1 6 -9.2660710215568542e-02</internalNodes>
          <leafValues>
            -9.8531675338745117e-01 3.0091372132301331e-01</leafValues></_></weakClassifiers></_>
    <!-- stage 5 -->
    <_>
      <maxWeakCount>6</maxWeakCount>
      <stageThreshold>-1.1726864576339722e+00</stageThreshold>
      <weakClassifiers>
        <_>
          <internalNodes>
            0 -1 3 4.6105474233627319e-02</internalNodes>
          <leafValues>
            -5.9873616695404053e-01 5.4117089509963989e-01</leafValues></_>
        <_>
          <internalNodes>
            0 -1 19 -2.6523329317569733e-02</internalNodes>
          <leafValues>
            3.5639593005180359e-01 -8.8309156894683838e-01</leafValues></_>
        <_>
          <internalNodes>
            0 -1 15 2.2530290298163891e-03</internalNodes>
          <leafValues>
            -5.2593421936035156e-01 5.7398843765258789e-01</leafValues></_>
        <_>
          <internalNodes>
            0 -1 26 4.6288322657346725e-02</internalNodes>
          <leafValues>
            -6.3845819234848022e-01 4.7410637140274048e-01</leafValues></_>
        <_>
          <internalNodes>
            0 -1 33 -3.9138654246926308e-03</internalNodes>
          <leafValues>
            5.7536613941192627e-01 -4.1458001732826233e-01</leafValues></_>
        <_>
          <internalNodes>
            0 -1 0 1.6427980735898018e-02</internalNodes>
          <leafValues>
            -3.2437345385551453e-01 7.5210875272750854e-01</leafValues></_></weakClassifiers></_>
    <!-- stage 6 -->
    <_>
      <maxWeakCount>7</maxWeakCount>
      <stageThreshold>-1.0571690797805786e+00</stageThreshold>
      <weakClassifiers>
        <_>
          <internalNodes>
            0 -1 22 3.9841290563344955e-03</internalNodes>
          <leafValues>
            -4.9814814329147339e-01 5.8478260040283203e-01</leafValues></_>
        <_>
          <internalNodes>
            0 -1 18 -9.4388111028820276e-04</internalNodes>
          <leafValues>
            2.7644649147987366e-01 -9.0990406274795532e-01</leafValues></_>
        <_>
          <internalNodes>
            0 -1 11 -2.0367085933685303e-02</internalNodes>
          <leafValues>
            -9.4067329168319702e-01 2.4267159402370453e-01</leafValues></_>
        <_>
          <internalNodes>
            0 -1 1 3.7276305258274078e-02</internalNodes>
          <leafValues>
            -5.0175702571868896e-01 5.0216913223266602e-01</leafValues></_>
        <_>
          <internalNodes>
            0 -1 34 7.1977227926254272e-02</internalNodes>
          <leafValues>
            -3.7192448973655701e-01 6.2465959787368774e-01</leafValues></_>
        <_>
          <internalNodes>
            0 -1 32 -5.3394827991724014e-03</internalNodes>
          <leafValues>
            6.2020677328109741e-01 -3.4940606355667114e-01</leafValues></_>
        <_>
          <internalNodes>
            0 -1 30 -5.9974556788802147e-03</internalNodes>
          <leafValues>
            3.6168625950813293e-01 -7.9782360792160034e-01</leafValues></_></weakClassifiers></_>
    <!-- stage 7 -->
    <_>
      <maxWeakCount>6</maxWeakCount>
      <stageThreshold>-1.3580029010772705e+00</stageThreshold>
      <weakClassifiers>
        <_>
          <internalNodes>
            0 -1 12 1.0979901999235153e-02</internalNodes>
          <leafValues>
            -6.6378241777420044e-01 4.5088160037994385e-01</leafValues></_>
        <_>
          <internalNodes>
            0 -1 37 -7.5642792508006096e-03</internalNodes>
          <leafValues>
            4.5741882920265198e-01 -5.4836815595626831e-01</leafValues></_>
        <_>
          <internalNodes>
            0 -1 17 2.7816805522888899e-03</internalNodes>
          <leafValues>
            2.5630077719688416e-01 -8.8629168272018433e-01</leafValues></_>
        <_>
          <internalNodes>
            0 -1 28 1.0591333266347647e-03</internalNodes>
          <leafValues>
            -7.9969173669815063e-01 2.5468519330024719e-01</leafValues></_>
        <_>
          <internalNodes>
            0 -1 8 3.9428723976016045e-03</internalNodes>
          <leafValues>
            -8.9390408992767334e-01 1.9908490777015686e-01</leafValues></_>
        <_>
          <internalNodes>
            0 -1 16 1.3525401009246707e-03</internalNodes>
          <leafValues>
            2.1061438322067261e-01 -8.5592311620712280e-01</leafValues></_></weakClassifiers></_></stages>
  <features>
    <_>
      <rects>
        <_>
          0 6 6 2 -1.</_>
        <_>
          2 6 2 2 3.</_></rects>
      <tilted>0</tilted></_>
    <_>
      <rects>
        <_>
          0 10 6 4 -1.</_>
        <_>
          3 10 3 4 2.</_></rects>
      <tilted>0</tilted></_>
    <_>
      <rects>
        <_>
          1 10 4 3 -1.</_>
        <_>
          3 10 2 3 2.</_></rects>
      <tilted>0</tilted></_>
    <_>
      <rects>
        <_>
          1 10 6 6 -1.</_>
        <_>
          4 10 3 6 2.</_></rects>
      <tilted>0</tilted></_>
    <_>
      <rects>
        <_>
          1 11 6 5 -1.</_>
        <_>
          4 11 3 5 2.</_></rects>
      <tilted>0</tilted></_>
    <_>
      <rects>
        <_>
          2 14 12 3 -1.</_>
        <_>
          6 14 4 3 3.</_></rects>
      <tilted>0</tilted></_>
    <_>
      <rects>
        <_>
          3 6 16 9 -1.</_>
        <_>
          11 6 8 9 2.</_></rects>
      <tilted>0</tilted></_>
    <_>
      <rects>
        <_>
          4 0 12 6 -1.</_>
        <_>
          4 3 12 3 2.</_></rects>
      <tilted>0</tilted></_>
    <_>
      <rects>
        <_>
          4 5 8 3 -1.</_>
        <_>
          8 5 4 3 2.</_></rects>
      <tilted>0</tilted></_>
    <_>
      <rects>
        <_>
          4 5 8 6 -1.</_>
        <_>
          4 5 4 3 2.</_>
        <_>
          8 8 4 3 2.</_></rects>
      <tilted>0</tilted></_>
    <_>
      <rects>
        <_>
          4 6 2 4 -1.</_>
        <_>
          4 6 1 2 2.</_>
        <_>
          5 8 1 2 2.</_></rects>
      <tilted>0</tilted></_>
    <_>
      <rects>
        <_>
          4 8 10 3 -1.</_>
        <_>
          9 8 5 3 2.</_></rects>
      <tilted>0</tilted></_>
    <_>
      <rects>
        <_>
          4 11 4 6 -1.</_>
        <_>
          4 11 2 3 2.</_>
        <_>
          6 14 2 3 2.</_></rects>
      <tilted>0</tilted></_>
    <_>
      <rects>
        <_>
          4 17 12 1 -1.</_>
        <_>
          8 17 4 1 3.</_></rects>
      <tilted>0</tilted></_>
    <_>
      <rects>
        <_>
          5 7 2 6 -1.</_>
        <_>
          5 7 1 3 2.</_>
        <_>
          6 10 1 3 2.</_></rects>
      <tilted>0</tilted></_>
    <_>
      <rects>
        <_>
          5 8 3 1 -1.</_>
        <_>
          6 8 1 1 3.</_></rects>
      <tilted>0</tilted></_>
    <_>
      <rects>
        <_>
          5 8 4 2 -1.</_>
        <_>
          5 9 4 1 2.</_></rects>
      <tilted>0</tilted></_>
    <_>
      <rects>
        <_>
          5 8 10 3 -1.</_>
        <_>
          10 8 5 3 2.</_></rects>
      <tilted>0</tilted></_>
    <_>
      <rects>
        <_>
          6 7 6 5 -1.</_>
        <_>
          9 7 3 5 2.</_></rects>
      <tilted>0</tilted></_>
    <_>
      <rects>
        <_>
          6 7 11 9 -1.</_>
        <_>
          6 10 11 3 3.</_></rects>
      <tilted>0</tilted></_>
    <_>
      <rects>
        <_>
          6 11 5 9 -1.</_>
        <_>
          6 14 5 3 3.</_></rects>
      <tilted>0</tilted></_>
    <_>
      <rects>
        <_>
          7 6 5 9 -1.</_>
        <_>
          7 9 5 3 3.</_></rects>
      <tilted>0</tilted></_>
    <_>
      <rects>
        <_>
          7 7 2 6 -1.</_>
        <_>
          7 7 1 3 2.</_>
        <_>
          8 10 1 3 2.</_></rects>
      <tilted>0</tilted></_>
    <_>
      <rects>
        <_>
          7 7 5 2 -1.</_>
        <_>
          7 8 5 1 2.</_></rects>
      <tilted>0</tilted></_>
    <_>
      <rects>
        <_>
          7 11 10 6 -1.</_>
        <_>
          12 11 5 6 2.</_></rects>
      <tilted>0</tilted></_>
    <_>
      <rects>
        <_>
          8 1 7 9 -1.</_>
        <_>
          8 4 7 3 3.</_></rects>
      <tilted>0</tilted></_>
    <_>
      <rects>
        <_>
          9 1 5 9 -1.</_>
        <_>
          9 4 5 3 3.</_></rects>
      <tilted>0</tilted></_>
    <_>
      <rects>
        <_>
          9 4 9 2 -1.</_>
        <_>
          12 4 3 2 3.</_></rects>
      <tilted>0</tilted></_>
    <_>
      <rects>
        <_>
          9 8 6 4 -1.</_>
        <_>
          12 8 3 4 2.</_></rects>
      <tilted>0</tilted></_>
    <_>
      <rects>
        <_>
          9 10 2 2 -1.</_>
        <_>
          10 10 1 2 2.</_></rects>
      <tilted>0</tilted></_>
    <_>
      <rects>
        <_>
          9 11 8 5 -1.</_>
        <_>
          13 11 4 5 2.</_></rects>
      <tilted>0</tilted></_>
    <_>
      <rects>
        <_>
          10 1 6 4 -1.</_>
        <_>
          10 3 6 2 2.</_></rects>
      <tilted>0</tilted></_>
    <_>
      <rects>
        <_>
          10 16 6 2 -1.</_>
        <_>
          10 16 3 1 2.</_>
        <_>
          13 17 3 1 2.</_></rects>
      <tilted>0</tilted></_>
    <_>
      <rects>
        <_>
          10 18 2 2 -1.</_>
        <_>
          10 19 2 1 2.</_></rects>
      <tilted>0</tilted></_>
    <_>
      <rects>
        <_>
          11 0 4 9 -1.</_>
        <_>
          11 3 4 3 3.</_></rects>
      <tilted>0</tilted></_>
    <_>
      <rects>
        <_>
          11 10 2 2 -1.</_>
        <_>
          12 10 1 2 2.</_></rects>
      <tilted>0</tilted></_>
    <_>
      <rects>
        <_>
          12 10 4 5 -1.</_>
        <_>
          14 10 2 5 2.</_></rects>
      <tilted>0</tilted></_>
    <_>
      <rects>
        <_>
          16 5 4 5 -1.</_>
        <_>
          18 5 2 5 2.</_></rects>
      <tilted>0</tilted></_></features></cascade>
</opencv_storage>
