<?xml version="1.0"?>
<opencv_storage>
<cascade>
  <stageType>BOOST</stageType>
  <featureType>HAAR</featureType>
  <height>20</height>
  <width>20</width>
  <stageParams>
    <boostType>GAB</boostType>
    <minHitRate>9.9500000476837158e-01</minHitRate>
    <maxFalseAlarm>5.0000000000000000e-01</maxFalseAlarm>
    <weightTrimRate>9.4999999999999996e-01</weightTrimRate>
    <maxDepth>1</maxDepth>
    <maxWeakCount>100</maxWeakCount></stageParams>
  <featureParams>
    <maxCatCount>0</maxCatCount>
    <featSize>1</featSize>
    <mode>BASIC</mode></featureParams>
  <stageNum>5</stageNum>
  <stages>
    <!-- stage 0 -->
    <_>
      <maxWeakCount>2</maxWeakCount>
      <stageThreshold>-9.5505915582180023e-02</stageThreshold>
      <weakClassifiers>
        <_>
          <internalNodes>
            0 -1 8 1.5354091301560402e-03</internalNodes>
          <leafValues>
            -9.5534664392471313e-01 9.2644673585891724e-01</leafValues></_>
        <_>
          <internalNodes>
            0 -1 4 -1.1332642752677202e-03</internalNodes>
          <leafValues>
            8.5984075069427490e-01 -9.8274487257003784e-01</leafValues></_></weakClassifiers></_>
    <!-- stage 1 -->
    <_>
      <maxWeakCount>2</maxWeakCount>
      <stageThreshold>-8.2882165908813477e-02</stageThreshold>
      <weakClassifiers>
        <_>
          <internalNodes>
            0 -1 0 -1.8524626269936562e-02</internalNodes>
          <leafValues>
            9.2195123434066772e-01 -9.3684208393096924e-01</leafValues></_>
        <_>
          <internalNodes>
            0 -1 5 1.0661203414201736e-02</internalNodes>
          <leafValues>
            -8.8070029020309448e-01 8.5395991802215576e-01</leafValues></_></weakClassifiers></_>
    <!-- stage 2 -->
    <_>
      <maxWeakCount>2</maxWeakCount>
      <stageThreshold>-1.5773902833461761e-01</stageThreshold>
      <weakClassifiers>
        <_>
          <internalNodes>
            0 -1 10 4.6539912000298500e-03</internalNodes>
          <leafValues>
            -9.2865926027297974e-01 8.7705349922180176e-01</leafValues></_>
        <_>
          <internalNodes>
            0 -1 1 1.7146814614534378e-02</internalNodes>
          <leafValues>
            -9.4312447309494019e-01 7.7092027664184570e-01</leafValues></_></weakClassifiers></_>
    <!-- stage 3 -->
    <_>
      <maxWeakCount>3</maxWeakCount>
      <stageThreshold>-1.0665117502212524e+00</stageThreshold>
      <weakClassifiers>
        <_>
          <internalNodes>
            0 -1 3 -4.2148316279053688e-03</internalNodes>
          <leafValues>
            8.5953879356384277e-01 -9.3434345722198486e-01</leafValues></_>
        <_>
          <internalNodes>
            0 -1 6 2.5410566478967667e-02</internalNodes>
          <leafValues>
            -8.3964389562606812e-01 8.0645507574081421e-01</leafValues></_>
        <_>
          <internalNodes>
            0 -1 9 4.7424165531992912e-03</internalNodes>
          <leafValues>
            -8.5407918691635132e-01 7.0747560262680054e-01</leafValues></_></weakClassifiers></_>
    <!-- stage 4 -->
    <_>
      <maxWeakCount>2</maxWeakCount>
      <stageThreshold>-1.8878041207790375e-01</stageThreshold>
      <weakClassifiers>
        <_>
          <internalNodes>
            0 -1 2 -2.0569808781147003e-02</internalNodes>
          <leafValues>
            8.1314170360565186e-01 -9.0957444906234741e-01</leafValues></_>
        <_>
          <internalNodes>
            0 -1 7 -1.0655198246240616e-02</internalNodes>
          <leafValues>
            7.2079408168792725e-01 -9.1089969873428345e-01</leafValues></_></weakClassifiers></_></stages>
  <features>
    <_>
      <rects>
        <_>
          1 1 1 10 -1.</_>
        <_>
          1 6 1 5 2.</_></rects>
      <tilted>0</tilted></_>
    <_>
      <rects>
        <_>
          1 10 1 10 -1.</_>
        <_>
          1 15 1 5 2.</_></rects>
      <tilted>0</tilted></_>
    <_>
      <rects>
        <_>
          2 0 6 3 -1.</_>
        <_>
          5 0 3 3 2.</_></rects>
      <tilted>0</tilted></_>
    <_>
      <rects>
        <_>
          2 2 3 2 -1.</_>
        <_>
          2 3 3 1 2.</_></rects>
      <tilted>0</tilted></_>
    <_>
      <rects>
        <_>
          2 18 2 1 -1.</_>
        <_>
          3 18 1 1 2.</_></rects>
      <tilted>0</tilted></_>
    <_>
      <rects>
        <_>
          6 10 11 3 -1.</_>
        <_>
          6 11 11 1 3.</_></rects>
      <tilted>0</tilted></_>
    <_>
      <rects>
        <_>
          8 0 12 2 -1.</_>
        <_>
          14 0 6 2 2.</_></rects>
      <tilted>0</tilted></_>
    <_>
      <rects>
        <_>
          18 1 1 10 -1.</_>
        <_>
          18 6 1 5 2.</_></rects>
      <tilted>0</tilted></_>
    <_>
      <rects>
        <_>
          18 3 2 1 -1.</_>
        <_>
          19 3 1 1 2.</_></rects>
      <tilted>0</tilted></_>
    <_>
      <rects>
        <_>
          18 17 2 3 -1.</_>
        <_>
          19 17 1 3 2.</_></rects>
      <tilted>0</tilted></_>
    <_>
      <rects>
        <_>
          19 16 1 4 -1.</_>
        <_>
          19 18 1 2 2.</_></rects>
      <tilted>0</tilted></_></features></cascade>
</opencv_storage>
